digraph Tree {
node [shape=box, style="filled, rounded", color="black", fontname=helvetica] ;
edge [fontname=helvetica] ;
0 [label="X[4] <= 107.5\ngini = 0.692\nsamples = 140\nvalue = [16, 13, 10, 36, 65]\nclass = drugC", fillcolor="#e539c047"] ;
1 [label="X[2] <= 0.5\ngini = 0.676\nsamples = 75\nvalue = [16, 13, 10, 36, 0]\nclass = drugB", fillcolor="#3c39e556"] ;
0 -> 1 [labeldistance=2.5, labelangle=45, headlabel="True"] ;
2 [label="X[0] <= 33.5\ngini = 0.495\nsamples = 29\nvalue = [16, 13, 0, 0, 0]\nclass = drugY", fillcolor="#e5813930"] ;
1 -> 2 ;
3 [label="gini = 0.0\nsamples = 16\nvalue = [16, 0, 0, 0, 0]\nclass = drugY", fillcolor="#e58139ff"] ;
2 -> 3 ;
4 [label="gini = 0.0\nsamples = 13\nvalue = [0, 13, 0, 0, 0]\nclass = drugX", fillcolor="#7be539ff"] ;
2 -> 4 ;
5 [label="X[2] <= 1.5\ngini = 0.34\nsamples = 46\nvalue = [0, 0, 10, 36, 0]\nclass = drugB", fillcolor="#3c39e5b8"] ;
1 -> 5 ;
6 [label="gini = 0.499\nsamples = 21\nvalue = [0, 0, 10, 11, 0]\nclass = drugB", fillcolor="#3c39e517"] ;
5 -> 6 ;
7 [label="gini = 0.0\nsamples = 25\nvalue = [0, 0, 0, 25, 0]\nclass = drugB", fillcolor="#3c39e5ff"] ;
5 -> 7 ;
8 [label="gini = 0.0\nsamples = 65\nvalue = [0, 0, 0, 0, 65]\nclass = drugC", fillcolor="#e539c0ff"] ;
0 -> 8 [labeldistance=2.5, labelangle=-45, headlabel="False"] ;
}